digraph Tree {
node [shape=box, fontname="helvetica"] ;
edge [fontname="helvetica"] ;
0 [label="X[2] <= 651.5\ngini = 0.066\nsamples = 22500\nvalue = [21730, 770]"] ;
1 [label="X[2] <= 600.0\ngini = 0.094\nsamples = 14400\nvalue = [13686, 714]"] ;
0 -> 1 [labeldistance=2.5, labelangle=45, headlabel="True"] ;
3 [label="X[2] <= 581.5\ngini = 0.049\nsamples = 10800\nvalue = [10529, 271]"] ;
1 -> 3 ;
29 [label="X[2] <= 522.0\ngini = 0.039\nsamples = 9360\nvalue = [9176, 184]"] ;
3 -> 29 ;
35 [label="X[2] <= 520.0\ngini = 0.066\nsamples = 5220\nvalue = [5043, 177]"] ;
29 -> 35 ;
37 [label="X[2] <= 395.5\ngini = 0.059\nsamples = 5130\nvalue = [4975, 155]"] ;
35 -> 37 ;
43 [label="X[0] <= 88.5\ngini = 0.263\nsamples = 90\nvalue = [76, 14]"] ;
37 -> 43 ;
97 [label="X[0] <= 18.5\ngini = 0.249\nsamples = 89\nvalue = [76, 13]"] ;
43 -> 97 ;
287 [label="X[0] <= 16.5\ngini = 0.388\nsamples = 19\nvalue = [14, 5]"] ;
97 -> 287 ;
289 [label="gini = 0.291\nsamples = 17\nvalue = [14, 3]"] ;
287 -> 289 ;
290 [label="gini = 0.0\nsamples = 2\nvalue = [0, 2]"] ;
287 -> 290 ;
288 [label="X[0] <= 36.5\ngini = 0.202\nsamples = 70\nvalue = [62, 8]"] ;
97 -> 288 ;
325 [label="gini = 0.0\nsamples = 18\nvalue = [18, 0]"] ;
288 -> 325 ;
326 [label="X[0] <= 37.5\ngini = 0.26\nsamples = 52\nvalue = [44, 8]"] ;
288 -> 326 ;
327 [label="gini = 0.0\nsamples = 1\nvalue = [0, 1]"] ;
326 -> 327 ;
328 [label="X[0] <= 53.5\ngini = 0.237\nsamples = 51\nvalue = [44, 7]"] ;
326 -> 328 ;
375 [label="X[0] <= 50.5\ngini = 0.375\nsamples = 16\nvalue = [12, 4]"] ;
328 -> 375 ;
377 [label="gini = 0.142\nsamples = 13\nvalue = [12, 1]"] ;
375 -> 377 ;
378 [label="gini = 0.0\nsamples = 3\nvalue = [0, 3]"] ;
375 -> 378 ;
376 [label="gini = 0.157\nsamples = 35\nvalue = [32, 3]"] ;
328 -> 376 ;
98 [label="gini = 0.0\nsamples = 1\nvalue = [0, 1]"] ;
43 -> 98 ;
44 [label="X[2] <= 482.0\ngini = 0.054\nsamples = 5040\nvalue = [4899, 141]"] ;
37 -> 44 ;
45 [label="gini = 0.017\nsamples = 2160\nvalue = [2141, 19]"] ;
44 -> 45 ;
46 [label="X[2] <= 484.0\ngini = 0.081\nsamples = 2880\nvalue = [2758, 122]"] ;
44 -> 46 ;
47 [label="X[0] <= 76.5\ngini = 0.499\nsamples = 90\nvalue = [47, 43]"] ;
46 -> 47 ;
55 [label="X[0] <= 61.5\ngini = 0.498\nsamples = 77\nvalue = [36, 41]"] ;
47 -> 55 ;
59 [label="X[0] <= 47.5\ngini = 0.498\nsamples = 62\nvalue = [33, 29]"] ;
55 -> 59 ;
67 [label="X[0] <= 21.5\ngini = 0.497\nsamples = 48\nvalue = [22, 26]"] ;
59 -> 67 ;
69 [label="X[0] <= 0.5\ngini = 0.463\nsamples = 22\nvalue = [14, 8]"] ;
67 -> 69 ;
207 [label="gini = 0.0\nsamples = 1\nvalue = [0, 1]"] ;
69 -> 207 ;
208 [label="gini = 0.444\nsamples = 21\nvalue = [14, 7]"] ;
69 -> 208 ;
70 [label="X[0] <= 36.5\ngini = 0.426\nsamples = 26\nvalue = [8, 18]"] ;
67 -> 70 ;
347 [label="X[0] <= 34.5\ngini = 0.48\nsamples = 15\nvalue = [6, 9]"] ;
70 -> 347 ;
349 [label="gini = 0.426\nsamples = 13\nvalue = [4, 9]"] ;
347 -> 349 ;
350 [label="gini = 0.0\nsamples = 2\nvalue = [2, 0]"] ;
347 -> 350 ;
348 [label="X[0] <= 43.5\ngini = 0.298\nsamples = 11\nvalue = [2, 9]"] ;
70 -> 348 ;
351 [label="gini = 0.0\nsamples = 7\nvalue = [0, 7]"] ;
348 -> 351 ;
352 [label="X[0] <= 44.5\ngini = 0.5\nsamples = 4\nvalue = [2, 2]"] ;
348 -> 352 ;
353 [label="gini = 0.0\nsamples = 1\nvalue = [1, 0]"] ;
352 -> 353 ;
354 [label="gini = 0.444\nsamples = 3\nvalue = [1, 2]"] ;
352 -> 354 ;
68 [label="X[0] <= 52.5\ngini = 0.337\nsamples = 14\nvalue = [11, 3]"] ;
59 -> 68 ;
265 [label="gini = 0.0\nsamples = 5\nvalue = [5, 0]"] ;
68 -> 265 ;
266 [label="X[0] <= 53.5\ngini = 0.444\nsamples = 9\nvalue = [6, 3]"] ;
68 -> 266 ;
267 [label="gini = 0.0\nsamples = 1\nvalue = [0, 1]"] ;
266 -> 267 ;
268 [label="X[0] <= 58.5\ngini = 0.375\nsamples = 8\nvalue = [6, 2]"] ;
266 -> 268 ;
359 [label="X[0] <= 55.5\ngini = 0.48\nsamples = 5\nvalue = [3, 2]"] ;
268 -> 359 ;
361 [label="gini = 0.0\nsamples = 2\nvalue = [2, 0]"] ;
359 -> 361 ;
362 [label="gini = 0.444\nsamples = 3\nvalue = [1, 2]"] ;
359 -> 362 ;
360 [label="gini = 0.0\nsamples = 3\nvalue = [3, 0]"] ;
268 -> 360 ;
60 [label="X[0] <= 66.5\ngini = 0.32\nsamples = 15\nvalue = [3, 12]"] ;
55 -> 60 ;
371 [label="gini = 0.0\nsamples = 5\nvalue = [0, 5]"] ;
60 -> 371 ;
372 [label="X[0] <= 68.5\ngini = 0.42\nsamples = 10\nvalue = [3, 7]"] ;
60 -> 372 ;
373 [label="gini = 0.0\nsamples = 2\nvalue = [2, 0]"] ;
372 -> 373 ;
374 [label="gini = 0.219\nsamples = 8\nvalue = [1, 7]"] ;
372 -> 374 ;
56 [label="X[0] <= 88.5\ngini = 0.26\nsamples = 13\nvalue = [11, 2]"] ;
47 -> 56 ;
91 [label="gini = 0.153\nsamples = 12\nvalue = [11, 1]"] ;
56 -> 91 ;
92 [label="gini = 0.0\nsamples = 1\nvalue = [0, 1]"] ;
56 -> 92 ;
48 [label="X[1] <= 190.0\ngini = 0.055\nsamples = 2790\nvalue = [2711, 79]"] ;
46 -> 48 ;
49 [label="gini = 0.008\nsamples = 1710\nvalue = [1703, 7]"] ;
48 -> 49 ;
50 [label="X[1] <= 203.0\ngini = 0.124\nsamples = 1080\nvalue = [1008, 72]"] ;
48 -> 50 ;
51 [label="X[1] <= 201.5\ngini = 0.292\nsamples = 270\nvalue = [222, 48]"] ;
50 -> 51 ;
53 [label="X[1] <= 196.0\ngini = 0.095\nsamples = 180\nvalue = [171, 9]"] ;
51 -> 53 ;
195 [label="X[0] <= 1.5\ngini = 0.18\nsamples = 90\nvalue = [81, 9]"] ;
53 -> 195 ;
291 [label="X[0] <= 0.5\ngini = 0.5\nsamples = 2\nvalue = [1, 1]"] ;
195 -> 291 ;
293 [label="gini = 0.0\nsamples = 1\nvalue = [1, 0]"] ;
291 -> 293 ;
294 [label="gini = 0.0\nsamples = 1\nvalue = [0, 1]"] ;
291 -> 294 ;
292 [label="X[0] <= 53.5\ngini = 0.165\nsamples = 88\nvalue = [80, 8]"] ;
195 -> 292 ;
295 [label="gini = 0.074\nsamples = 52\nvalue = [50, 2]"] ;
292 -> 295 ;
296 [label="X[0] <= 61.5\ngini = 0.278\nsamples = 36\nvalue = [30, 6]"] ;
292 -> 296 ;
297 [label="X[0] <= 57.5\ngini = 0.5\nsamples = 8\nvalue = [4, 4]"] ;
296 -> 297 ;
299 [label="X[0] <= 54.5\ngini = 0.375\nsamples = 4\nvalue = [3, 1]"] ;
297 -> 299 ;
301 [label="gini = 0.0\nsamples = 1\nvalue = [0, 1]"] ;
299 -> 301 ;
302 [label="gini = 0.0\nsamples = 3\nvalue = [3, 0]"] ;
299 -> 302 ;
300 [label="gini = 0.375\nsamples = 4\nvalue = [1, 3]"] ;
297 -> 300 ;
298 [label="gini = 0.133\nsamples = 28\nvalue = [26, 2]"] ;
296 -> 298 ;
196 [label="gini = 0.0\nsamples = 90\nvalue = [90, 0]"] ;
53 -> 196 ;
54 [label="X[0] <= 4.5\ngini = 0.491\nsamples = 90\nvalue = [51, 39]"] ;
51 -> 54 ;
73 [label="gini = 0.0\nsamples = 5\nvalue = [5, 0]"] ;
54 -> 73 ;
74 [label="X[0] <= 7.5\ngini = 0.497\nsamples = 85\nvalue = [46, 39]"] ;
54 -> 74 ;
77 [label="gini = 0.0\nsamples = 3\nvalue = [0, 3]"] ;
74 -> 77 ;
78 [label="X[0] <= 82.5\ngini = 0.493\nsamples = 82\nvalue = [46, 36]"] ;
74 -> 78 ;
99 [label="X[0] <= 56.5\ngini = 0.498\nsamples = 75\nvalue = [40, 35]"] ;
78 -> 99 ;
153 [label="X[0] <= 47.5\ngini = 0.483\nsamples = 49\nvalue = [29, 20]"] ;
99 -> 153 ;
157 [label="X[0] <= 29.5\ngini = 0.499\nsamples = 40\nvalue = [21, 19]"] ;
153 -> 157 ;
159 [label="X[0] <= 19.5\ngini = 0.463\nsamples = 22\nvalue = [14, 8]"] ;
157 -> 159 ;
165 [label="X[0] <= 9.5\ngini = 0.5\nsamples = 12\nvalue = [6, 6]"] ;
159 -> 165 ;
167 [label="gini = 0.0\nsamples = 2\nvalue = [2, 0]"] ;
165 -> 167 ;
168 [label="X[0] <= 12.5\ngini = 0.48\nsamples = 10\nvalue = [4, 6]"] ;
165 -> 168 ;
169 [label="gini = 0.0\nsamples = 3\nvalue = [0, 3]"] ;
168 -> 169 ;
170 [label="X[0] <= 15.5\ngini = 0.49\nsamples = 7\nvalue = [4, 3]"] ;
168 -> 170 ;
171 [label="gini = 0.0\nsamples = 3\nvalue = [3, 0]"] ;
170 -> 171 ;
172 [label="gini = 0.375\nsamples = 4\nvalue = [1, 3]"] ;
170 -> 172 ;
166 [label="gini = 0.32\nsamples = 10\nvalue = [8, 2]"] ;
159 -> 166 ;
160 [label="X[0] <= 32.5\ngini = 0.475\nsamples = 18\nvalue = [7, 11]"] ;
157 -> 160 ;
161 [label="gini = 0.0\nsamples = 3\nvalue = [0, 3]"] ;
160 -> 161 ;
162 [label="X[0] <= 34.5\ngini = 0.498\nsamples = 15\nvalue = [7, 8]"] ;
160 -> 162 ;
163 [label="gini = 0.0\nsamples = 2\nvalue = [2, 0]"] ;
162 -> 163 ;
164 [label="X[0] <= 42.5\ngini = 0.473\nsamples = 13\nvalue = [5, 8]"] ;
162 -> 164 ;
245 [label="gini = 0.375\nsamples = 8\nvalue = [2, 6]"] ;
164 -> 245 ;
246 [label="X[0] <= 46.5\ngini = 0.48\nsamples = 5\nvalue = [3, 2]"] ;
164 -> 246 ;
247 [label="gini = 0.375\nsamples = 4\nvalue = [3, 1]"] ;
246 -> 247 ;
248 [label="gini = 0.0\nsamples = 1\nvalue = [0, 1]"] ;
246 -> 248 ;
158 [label="gini = 0.198\nsamples = 9\nvalue = [8, 1]"] ;
153 -> 158 ;
154 [label="X[0] <= 61.5\ngini = 0.488\nsamples = 26\nvalue = [11, 15]"] ;
99 -> 154 ;
155 [label="gini = 0.0\nsamples = 5\nvalue = [0, 5]"] ;
154 -> 155 ;
156 [label="X[0] <= 78.5\ngini = 0.499\nsamples = 21\nvalue = [11, 10]"] ;
154 -> 156 ;
249 [label="X[0] <= 69.5\ngini = 0.484\nsamples = 17\nvalue = [10, 7]"] ;
156 -> 249 ;
251 [label="X[0] <= 66.5\ngini = 0.469\nsamples = 8\nvalue = [3, 5]"] ;
249 -> 251 ;
253 [label="X[0] <= 64.5\ngini = 0.48\nsamples = 5\nvalue = [3, 2]"] ;
251 -> 253 ;
257 [label="X[0] <= 62.5\ngini = 0.444\nsamples = 3\nvalue = [1, 2]"] ;
253 -> 257 ;
259 [label="gini = 0.0\nsamples = 1\nvalue = [1, 0]"] ;
257 -> 259 ;
260 [label="gini = 0.0\nsamples = 2\nvalue = [0, 2]"] ;
257 -> 260 ;
258 [label="gini = 0.0\nsamples = 2\nvalue = [2, 0]"] ;
253 -> 258 ;
254 [label="gini = 0.0\nsamples = 3\nvalue = [0, 3]"] ;
251 -> 254 ;
252 [label="X[0] <= 74.5\ngini = 0.346\nsamples = 9\nvalue = [7, 2]"] ;
249 -> 252 ;
255 [label="gini = 0.0\nsamples = 5\nvalue = [5, 0]"] ;
252 -> 255 ;
256 [label="X[0] <= 75.5\ngini = 0.5\nsamples = 4\nvalue = [2, 2]"] ;
252 -> 256 ;
279 [label="gini = 0.0\nsamples = 1\nvalue = [0, 1]"] ;
256 -> 279 ;
280 [label="gini = 0.444\nsamples = 3\nvalue = [2, 1]"] ;
256 -> 280 ;
250 [label="gini = 0.375\nsamples = 4\nvalue = [1, 3]"] ;
156 -> 250 ;
100 [label="gini = 0.245\nsamples = 7\nvalue = [6, 1]"] ;
78 -> 100 ;
52 [label="X[1] <= 248.5\ngini = 0.058\nsamples = 810\nvalue = [786, 24]"] ;
50 -> 52 ;
57 [label="gini = 0.03\nsamples = 720\nvalue = [709, 11]"] ;
52 -> 57 ;
58 [label="X[0] <= 64.5\ngini = 0.247\nsamples = 90\nvalue = [77, 13]"] ;
52 -> 58 ;
111 [label="X[0] <= 40.5\ngini = 0.168\nsamples = 65\nvalue = [59, 6]"] ;
58 -> 111 ;
311 [label="X[0] <= 25.5\ngini = 0.25\nsamples = 41\nvalue = [35, 6]"] ;
111 -> 311 ;
313 [label="gini = 0.074\nsamples = 26\nvalue = [25, 1]"] ;
311 -> 313 ;
314 [label="X[0] <= 26.5\ngini = 0.444\nsamples = 15\nvalue = [10, 5]"] ;
311 -> 314 ;
315 [label="gini = 0.0\nsamples = 1\nvalue = [0, 1]"] ;
314 -> 315 ;
316 [label="X[0] <= 39.5\ngini = 0.408\nsamples = 14\nvalue = [10, 4]"] ;
314 -> 316 ;
317 [label="X[0] <= 35.5\ngini = 0.355\nsamples = 13\nvalue = [10, 3]"] ;
316 -> 317 ;
343 [label="X[0] <= 34.5\ngini = 0.444\nsamples = 9\nvalue = [6, 3]"] ;
317 -> 343 ;
345 [label="gini = 0.375\nsamples = 8\nvalue = [6, 2]"] ;
343 -> 345 ;
346 [label="gini = 0.0\nsamples = 1\nvalue = [0, 1]"] ;
343 -> 346 ;
344 [label="gini = 0.0\nsamples = 4\nvalue = [4, 0]"] ;
317 -> 344 ;
318 [label="gini = 0.0\nsamples = 1\nvalue = [0, 1]"] ;
316 -> 318 ;
312 [label="gini = 0.0\nsamples = 24\nvalue = [24, 0]"] ;
111 -> 312 ;
112 [label="X[0] <= 65.5\ngini = 0.403\nsamples = 25\nvalue = [18, 7]"] ;
58 -> 112 ;
129 [label="gini = 0.0\nsamples = 1\nvalue = [0, 1]"] ;
112 -> 129 ;
130 [label="X[0] <= 85.5\ngini = 0.375\nsamples = 24\nvalue = [18, 6]"] ;
112 -> 130 ;
363 [label="X[0] <= 83.5\ngini = 0.42\nsamples = 20\nvalue = [14, 6]"] ;
130 -> 363 ;
365 [label="X[0] <= 78.5\ngini = 0.346\nsamples = 18\nvalue = [14, 4]"] ;
363 -> 365 ;
367 [label="X[0] <= 77.5\ngini = 0.426\nsamples = 13\nvalue = [9, 4]"] ;
365 -> 367 ;
369 [label="gini = 0.375\nsamples = 12\nvalue = [9, 3]"] ;
367 -> 369 ;
370 [label="gini = 0.0\nsamples = 1\nvalue = [0, 1]"] ;
367 -> 370 ;
368 [label="gini = 0.0\nsamples = 5\nvalue = [5, 0]"] ;
365 -> 368 ;
366 [label="gini = 0.0\nsamples = 2\nvalue = [0, 2]"] ;
363 -> 366 ;
364 [label="gini = 0.0\nsamples = 4\nvalue = [4, 0]"] ;
130 -> 364 ;
38 [label="X[0] <= 58.5\ngini = 0.369\nsamples = 90\nvalue = [68, 22]"] ;
35 -> 38 ;
395 [label="gini = 0.324\nsamples = 59\nvalue = [47, 12]"] ;
38 -> 395 ;
396 [label="X[0] <= 60.5\ngini = 0.437\nsamples = 31\nvalue = [21, 10]"] ;
38 -> 396 ;
397 [label="gini = 0.0\nsamples = 2\nvalue = [0, 2]"] ;
396 -> 397 ;
398 [label="gini = 0.4\nsamples = 29\nvalue = [21, 8]"] ;
396 -> 398 ;
36 [label="gini = 0.003\nsamples = 4140\nvalue = [4133, 7]"] ;
29 -> 36 ;
30 [label="X[2] <= 584.0\ngini = 0.114\nsamples = 1440\nvalue = [1353, 87]"] ;
3 -> 30 ;
31 [label="X[1] <= 51.5\ngini = 0.297\nsamples = 270\nvalue = [221, 49]"] ;
30 -> 31 ;
33 [label="gini = 0.0\nsamples = 90\nvalue = [90, 0]"] ;
31 -> 33 ;
34 [label="X[1] <= 121.5\ngini = 0.396\nsamples = 180\nvalue = [131, 49]"] ;
31 -> 34 ;
61 [label="X[0] <= 85.5\ngini = 0.306\nsamples = 90\nvalue = [73, 17]"] ;
34 -> 61 ;
213 [label="X[0] <= 63.5\ngini = 0.288\nsamples = 86\nvalue = [71, 15]"] ;
61 -> 213 ;
215 [label="X[0] <= 62.5\ngini = 0.342\nsamples = 64\nvalue = [50, 14]"] ;
213 -> 215 ;
217 [label="X[0] <= 40.5\ngini = 0.328\nsamples = 63\nvalue = [50, 13]"] ;
215 -> 217 ;
219 [label="X[0] <= 21.5\ngini = 0.25\nsamples = 41\nvalue = [35, 6]"] ;
217 -> 219 ;
223 [label="X[0] <= 17.5\ngini = 0.397\nsamples = 22\nvalue = [16, 6]"] ;
219 -> 223 ;
225 [label="gini = 0.278\nsamples = 18\nvalue = [15, 3]"] ;
223 -> 225 ;
226 [label="gini = 0.375\nsamples = 4\nvalue = [1, 3]"] ;
223 -> 226 ;
224 [label="gini = 0.0\nsamples = 19\nvalue = [19, 0]"] ;
219 -> 224 ;
220 [label="X[0] <= 50.5\ngini = 0.434\nsamples = 22\nvalue = [15, 7]"] ;
217 -> 220 ;
221 [label="X[0] <= 42.5\ngini = 0.48\nsamples = 10\nvalue = [4, 6]"] ;
220 -> 221 ;
231 [label="gini = 0.0\nsamples = 2\nvalue = [0, 2]"] ;
221 -> 231 ;
232 [label="X[0] <= 48.5\ngini = 0.5\nsamples = 8\nvalue = [4, 4]"] ;
221 -> 232 ;
233 [label="gini = 0.444\nsamples = 6\nvalue = [4, 2]"] ;
232 -> 233 ;
234 [label="gini = 0.0\nsamples = 2\nvalue = [0, 2]"] ;
232 -> 234 ;
222 [label="gini = 0.153\nsamples = 12\nvalue = [11, 1]"] ;
220 -> 222 ;
218 [label="gini = 0.0\nsamples = 1\nvalue = [0, 1]"] ;
215 -> 218 ;
216 [label="gini = 0.087\nsamples = 22\nvalue = [21, 1]"] ;
213 -> 216 ;
214 [label="X[0] <= 86.5\ngini = 0.5\nsamples = 4\nvalue = [2, 2]"] ;
61 -> 214 ;
281 [label="gini = 0.0\nsamples = 1\nvalue = [0, 1]"] ;
214 -> 281 ;
282 [label="gini = 0.444\nsamples = 3\nvalue = [2, 1]"] ;
214 -> 282 ;
62 [label="X[0] <= 30.5\ngini = 0.458\nsamples = 90\nvalue = [58, 32]"] ;
34 -> 62 ;
63 [label="X[0] <= 1.5\ngini = 0.312\nsamples = 31\nvalue = [25, 6]"] ;
62 -> 63 ;
65 [label="gini = 0.0\nsamples = 2\nvalue = [0, 2]"] ;
63 -> 65 ;
66 [label="gini = 0.238\nsamples = 29\nvalue = [25, 4]"] ;
63 -> 66 ;
64 [label="X[0] <= 78.5\ngini = 0.493\nsamples = 59\nvalue = [33, 26]"] ;
62 -> 64 ;
81 [label="X[0] <= 75.5\ngini = 0.5\nsamples = 48\nvalue = [24, 24]"] ;
64 -> 81 ;
89 [label="X[0] <= 73.5\ngini = 0.498\nsamples = 45\nvalue = [24, 21]"] ;
81 -> 89 ;
187 [label="X[0] <= 71.5\ngini = 0.5\nsamples = 43\nvalue = [22, 21]"] ;
89 -> 187 ;
189 [label="X[0] <= 52.5\ngini = 0.497\nsamples = 41\nvalue = [22, 19]"] ;
187 -> 189 ;
319 [label="X[0] <= 49.5\ngini = 0.496\nsamples = 22\nvalue = [10, 12]"] ;
189 -> 319 ;
321 [label="X[0] <= 38.5\ngini = 0.499\nsamples = 19\nvalue = [10, 9]"] ;
319 -> 321 ;
329 [label="X[0] <= 33.5\ngini = 0.469\nsamples = 8\nvalue = [3, 5]"] ;
321 -> 329 ;
339 [label="X[0] <= 31.5\ngini = 0.444\nsamples = 3\nvalue = [2, 1]"] ;
329 -> 339 ;
341 [label="gini = 0.0\nsamples = 1\nvalue = [0, 1]"] ;
339 -> 341 ;
342 [label="gini = 0.0\nsamples = 2\nvalue = [2, 0]"] ;
339 -> 342 ;
340 [label="gini = 0.32\nsamples = 5\nvalue = [1, 4]"] ;
329 -> 340 ;
330 [label="X[0] <= 42.5\ngini = 0.463\nsamples = 11\nvalue = [7, 4]"] ;
321 -> 330 ;
331 [label="gini = 0.0\nsamples = 4\nvalue = [4, 0]"] ;
330 -> 331 ;
332 [label="X[0] <= 44.5\ngini = 0.49\nsamples = 7\nvalue = [3, 4]"] ;
330 -> 332 ;
333 [label="gini = 0.0\nsamples = 2\nvalue = [0, 2]"] ;
332 -> 333 ;
334 [label="X[0] <= 46.5\ngini = 0.48\nsamples = 5\nvalue = [3, 2]"] ;
332 -> 334 ;
335 [label="gini = 0.0\nsamples = 2\nvalue = [2, 0]"] ;
334 -> 335 ;
336 [label="X[0] <= 48.5\ngini = 0.444\nsamples = 3\nvalue = [1, 2]"] ;
334 -> 336 ;
337 [label="gini = 0.0\nsamples = 2\nvalue = [0, 2]"] ;
336 -> 337 ;
338 [label="gini = 0.0\nsamples = 1\nvalue = [1, 0]"] ;
336 -> 338 ;
322 [label="gini = 0.0\nsamples = 3\nvalue = [0, 3]"] ;
319 -> 322 ;
320 [label="X[0] <= 61.5\ngini = 0.465\nsamples = 19\nvalue = [12, 7]"] ;
189 -> 320 ;
323 [label="gini = 0.346\nsamples = 9\nvalue = [7, 2]"] ;
320 -> 323 ;
324 [label="gini = 0.5\nsamples = 10\nvalue = [5, 5]"] ;
320 -> 324 ;
190 [label="gini = 0.0\nsamples = 2\nvalue = [0, 2]"] ;
187 -> 190 ;
188 [label="gini = 0.0\nsamples = 2\nvalue = [2, 0]"] ;
89 -> 188 ;
90 [label="gini = 0.0\nsamples = 3\nvalue = [0, 3]"] ;
81 -> 90 ;
82 [label="X[0] <= 88.5\ngini = 0.298\nsamples = 11\nvalue = [9, 2]"] ;
64 -> 82 ;
95 [label="gini = 0.18\nsamples = 10\nvalue = [9, 1]"] ;
82 -> 95 ;
96 [label="gini = 0.0\nsamples = 1\nvalue = [0, 1]"] ;
82 -> 96 ;
32 [label="X[1] <= 151.5\ngini = 0.063\nsamples = 1170\nvalue = [1132, 38]"] ;
30 -> 32 ;
39 [label="gini = 0.0\nsamples = 720\nvalue = [720, 0]"] ;
32 -> 39 ;
40 [label="X[1] <= 162.5\ngini = 0.155\nsamples = 450\nvalue = [412, 38]"] ;
32 -> 40 ;
41 [label="X[0] <= 1.5\ngini = 0.444\nsamples = 90\nvalue = [60, 30]"] ;
40 -> 41 ;
79 [label="gini = 0.0\nsamples = 2\nvalue = [0, 2]"] ;
41 -> 79 ;
80 [label="X[0] <= 15.5\ngini = 0.434\nsamples = 88\nvalue = [60, 28]"] ;
41 -> 80 ;
135 [label="gini = 0.245\nsamples = 14\nvalue = [12, 2]"] ;
80 -> 135 ;
136 [label="X[0] <= 17.5\ngini = 0.456\nsamples = 74\nvalue = [48, 26]"] ;
80 -> 136 ;
137 [label="gini = 0.0\nsamples = 2\nvalue = [0, 2]"] ;
136 -> 137 ;
138 [label="X[0] <= 61.5\ngini = 0.444\nsamples = 72\nvalue = [48, 24]"] ;
136 -> 138 ;
139 [label="X[0] <= 57.5\ngini = 0.483\nsamples = 44\nvalue = [26, 18]"] ;
138 -> 139 ;
145 [label="X[0] <= 54.5\ngini = 0.469\nsamples = 40\nvalue = [25, 15]"] ;
139 -> 145 ;
183 [label="X[0] <= 52.5\ngini = 0.482\nsamples = 37\nvalue = [22, 15]"] ;
145 -> 183 ;
185 [label="X[0] <= 42.5\ngini = 0.467\nsamples = 35\nvalue = [22, 13]"] ;
183 -> 185 ;
209 [label="X[0] <= 36.5\ngini = 0.493\nsamples = 25\nvalue = [14, 11]"] ;
185 -> 209 ;
211 [label="gini = 0.465\nsamples = 19\nvalue = [12, 7]"] ;
209 -> 211 ;
212 [label="X[0] <= 38.5\ngini = 0.444\nsamples = 6\nvalue = [2, 4]"] ;
209 -> 212 ;
283 [label="gini = 0.0\nsamples = 2\nvalue = [0, 2]"] ;
212 -> 283 ;
284 [label="X[0] <= 39.5\ngini = 0.5\nsamples = 4\nvalue = [2, 2]"] ;
212 -> 284 ;
285 [label="gini = 0.0\nsamples = 1\nvalue = [1, 0]"] ;
284 -> 285 ;
286 [label="gini = 0.444\nsamples = 3\nvalue = [1, 2]"] ;
284 -> 286 ;
210 [label="X[0] <= 47.5\ngini = 0.32\nsamples = 10\nvalue = [8, 2]"] ;
185 -> 210 ;
227 [label="gini = 0.0\nsamples = 5\nvalue = [5, 0]"] ;
210 -> 227 ;
228 [label="X[0] <= 48.5\ngini = 0.48\nsamples = 5\nvalue = [3, 2]"] ;
210 -> 228 ;
229 [label="gini = 0.0\nsamples = 1\nvalue = [0, 1]"] ;
228 -> 229 ;
230 [label="gini = 0.375\nsamples = 4\nvalue = [3, 1]"] ;
228 -> 230 ;
186 [label="gini = 0.0\nsamples = 2\nvalue = [0, 2]"] ;
183 -> 186 ;
184 [label="gini = 0.0\nsamples = 3\nvalue = [3, 0]"] ;
145 -> 184 ;
146 [label="gini = 0.375\nsamples = 4\nvalue = [1, 3]"] ;
139 -> 146 ;
140 [label="X[0] <= 77.5\ngini = 0.337\nsamples = 28\nvalue = [22, 6]"] ;
138 -> 140 ;
141 [label="gini = 0.117\nsamples = 16\nvalue = [15, 1]"] ;
140 -> 141 ;
142 [label="X[0] <= 81.5\ngini = 0.486\nsamples = 12\nvalue = [7, 5]"] ;
140 -> 142 ;
143 [label="gini = 0.375\nsamples = 4\nvalue = [1, 3]"] ;
142 -> 143 ;
144 [label="X[0] <= 84.5\ngini = 0.375\nsamples = 8\nvalue = [6, 2]"] ;
142 -> 144 ;
355 [label="gini = 0.0\nsamples = 3\nvalue = [3, 0]"] ;
144 -> 355 ;
356 [label="X[0] <= 87.5\ngini = 0.48\nsamples = 5\nvalue = [3, 2]"] ;
144 -> 356 ;
357 [label="gini = 0.444\nsamples = 3\nvalue = [1, 2]"] ;
356 -> 357 ;
358 [label="gini = 0.0\nsamples = 2\nvalue = [2, 0]"] ;
356 -> 358 ;
42 [label="X[2] <= 592.5\ngini = 0.043\nsamples = 360\nvalue = [352, 8]"] ;
40 -> 42 ;
131 [label="gini = 0.0\nsamples = 270\nvalue = [270, 0]"] ;
42 -> 131 ;
132 [label="X[0] <= 88.5\ngini = 0.162\nsamples = 90\nvalue = [82, 8]"] ;
42 -> 132 ;
133 [label="gini = 0.145\nsamples = 89\nvalue = [82, 7]"] ;
132 -> 133 ;
134 [label="gini = 0.0\nsamples = 1\nvalue = [0, 1]"] ;
132 -> 134 ;
4 [label="X[2] <= 648.5\ngini = 0.216\nsamples = 3600\nvalue = [3157, 443]"] ;
1 -> 4 ;
5 [label="X[2] <= 606.0\ngini = 0.198\nsamples = 3510\nvalue = [3119, 391]"] ;
4 -> 5 ;
7 [label="X[1] <= 212.0\ngini = 0.43\nsamples = 450\nvalue = [309, 141]"] ;
5 -> 7 ;
9 [label="X[2] <= 604.5\ngini = 0.323\nsamples = 360\nvalue = [287, 73]"] ;
7 -> 9 ;
11 [label="gini = 0.0\nsamples = 180\nvalue = [180, 0]"] ;
9 -> 11 ;
12 [label="X[1] <= 115.0\ngini = 0.482\nsamples = 180\nvalue = [107, 73]"] ;
9 -> 12 ;
13 [label="X[0] <= 26.5\ngini = 0.306\nsamples = 90\nvalue = [17, 73]"] ;
12 -> 13 ;
197 [label="X[0] <= 24.5\ngini = 0.417\nsamples = 27\nvalue = [8, 19]"] ;
13 -> 197 ;
199 [label="X[0] <= 6.5\ngini = 0.365\nsamples = 25\nvalue = [6, 19]"] ;
197 -> 199 ;
201 [label="gini = 0.0\nsamples = 7\nvalue = [0, 7]"] ;
199 -> 201 ;
202 [label="X[0] <= 10.5\ngini = 0.444\nsamples = 18\nvalue = [6, 12]"] ;
199 -> 202 ;
203 [label="gini = 0.0\nsamples = 4\nvalue = [4, 0]"] ;
202 -> 203 ;
204 [label="gini = 0.245\nsamples = 14\nvalue = [2, 12]"] ;
202 -> 204 ;
200 [label="gini = 0.0\nsamples = 2\nvalue = [2, 0]"] ;
197 -> 200 ;
198 [label="X[0] <= 84.5\ngini = 0.245\nsamples = 63\nvalue = [9, 54]"] ;
13 -> 198 ;
261 [label="gini = 0.212\nsamples = 58\nvalue = [7, 51]"] ;
198 -> 261 ;
262 [label="X[0] <= 87.5\ngini = 0.48\nsamples = 5\nvalue = [2, 3]"] ;
198 -> 262 ;
263 [label="gini = 0.444\nsamples = 3\nvalue = [2, 1]"] ;
262 -> 263 ;
264 [label="gini = 0.0\nsamples = 2\nvalue = [0, 2]"] ;
262 -> 264 ;
14 [label="gini = 0.0\nsamples = 90\nvalue = [90, 0]"] ;
12 -> 14 ;
10 [label="X[0] <= 42.5\ngini = 0.369\nsamples = 90\nvalue = [22, 68]"] ;
7 -> 10 ;
83 [label="X[0] <= 22.5\ngini = 0.454\nsamples = 43\nvalue = [15, 28]"] ;
10 -> 83 ;
85 [label="gini = 0.227\nsamples = 23\nvalue = [3, 20]"] ;
83 -> 85 ;
86 [label="X[0] <= 27.5\ngini = 0.48\nsamples = 20\nvalue = [12, 8]"] ;
83 -> 86 ;
87 [label="gini = 0.0\nsamples = 5\nvalue = [5, 0]"] ;
86 -> 87 ;
88 [label="X[0] <= 29.5\ngini = 0.498\nsamples = 15\nvalue = [7, 8]"] ;
86 -> 88 ;
147 [label="gini = 0.0\nsamples = 2\nvalue = [0, 2]"] ;
88 -> 147 ;
148 [label="X[0] <= 35.5\ngini = 0.497\nsamples = 13\nvalue = [7, 6]"] ;
88 -> 148 ;
149 [label="X[0] <= 31.5\ngini = 0.278\nsamples = 6\nvalue = [5, 1]"] ;
148 -> 149 ;
275 [label="X[0] <= 30.5\ngini = 0.5\nsamples = 2\nvalue = [1, 1]"] ;
149 -> 275 ;
277 [label="gini = 0.0\nsamples = 1\nvalue = [1, 0]"] ;
275 -> 277 ;
278 [label="gini = 0.0\nsamples = 1\nvalue = [0, 1]"] ;
275 -> 278 ;
276 [label="gini = 0.0\nsamples = 4\nvalue = [4, 0]"] ;
149 -> 276 ;
150 [label="X[0] <= 39.5\ngini = 0.408\nsamples = 7\nvalue = [2, 5]"] ;
148 -> 150 ;
151 [label="gini = 0.0\nsamples = 4\nvalue = [0, 4]"] ;
150 -> 151 ;
152 [label="gini = 0.444\nsamples = 3\nvalue = [2, 1]"] ;
150 -> 152 ;
84 [label="gini = 0.254\nsamples = 47\nvalue = [7, 40]"] ;
10 -> 84 ;
8 [label="X[1] <= 74.5\ngini = 0.15\nsamples = 3060\nvalue = [2810, 250]"] ;
5 -> 8 ;
15 [label="X[1] <= 59.5\ngini = 0.246\nsamples = 900\nvalue = [771, 129]"] ;
8 -> 15 ;
17 [label="X[2] <= 612.0\ngini = 0.072\nsamples = 720\nvalue = [693, 27]"] ;
15 -> 17 ;
75 [label="gini = 0.18\nsamples = 180\nvalue = [162, 18]"] ;
17 -> 75 ;
76 [label="X[1] <= 9.5\ngini = 0.033\nsamples = 540\nvalue = [531, 9]"] ;
17 -> 76 ;
113 [label="X[0] <= 39.5\ngini = 0.162\nsamples = 90\nvalue = [82, 8]"] ;
76 -> 113 ;
379 [label="gini = 0.049\nsamples = 40\nvalue = [39, 1]"] ;
113 -> 379 ;
380 [label="X[0] <= 60.5\ngini = 0.241\nsamples = 50\nvalue = [43, 7]"] ;
113 -> 380 ;
381 [label="X[0] <= 40.5\ngini = 0.408\nsamples = 21\nvalue = [15, 6]"] ;
380 -> 381 ;
383 [label="gini = 0.0\nsamples = 1\nvalue = [0, 1]"] ;
381 -> 383 ;
384 [label="X[0] <= 57.5\ngini = 0.375\nsamples = 20\nvalue = [15, 5]"] ;
381 -> 384 ;
385 [label="gini = 0.291\nsamples = 17\nvalue = [14, 3]"] ;
384 -> 385 ;
386 [label="gini = 0.444\nsamples = 3\nvalue = [1, 2]"] ;
384 -> 386 ;
382 [label="gini = 0.067\nsamples = 29\nvalue = [28, 1]"] ;
380 -> 382 ;
114 [label="gini = 0.004\nsamples = 450\nvalue = [449, 1]"] ;
76 -> 114 ;
18 [label="X[1] <= 69.0\ngini = 0.491\nsamples = 180\nvalue = [78, 102]"] ;
15 -> 18 ;
23 [label="X[0] <= 87.5\ngini = 0.475\nsamples = 90\nvalue = [55, 35]"] ;
18 -> 23 ;
93 [label="X[0] <= 32.5\ngini = 0.469\nsamples = 88\nvalue = [55, 33]"] ;
23 -> 93 ;
101 [label="X[0] <= 20.5\ngini = 0.5\nsamples = 33\nvalue = [17, 16]"] ;
93 -> 101 ;
103 [label="X[0] <= 11.5\ngini = 0.444\nsamples = 21\nvalue = [14, 7]"] ;
101 -> 103 ;
105 [label="X[0] <= 8.5\ngini = 0.5\nsamples = 12\nvalue = [6, 6]"] ;
103 -> 105 ;
107 [label="gini = 0.444\nsamples = 9\nvalue = [6, 3]"] ;
105 -> 107 ;
108 [label="gini = 0.0\nsamples = 3\nvalue = [0, 3]"] ;
105 -> 108 ;
106 [label="gini = 0.198\nsamples = 9\nvalue = [8, 1]"] ;
103 -> 106 ;
104 [label="gini = 0.375\nsamples = 12\nvalue = [3, 9]"] ;
101 -> 104 ;
102 [label="X[0] <= 39.5\ngini = 0.427\nsamples = 55\nvalue = [38, 17]"] ;
93 -> 102 ;
109 [label="gini = 0.0\nsamples = 7\nvalue = [7, 0]"] ;
102 -> 109 ;
110 [label="X[0] <= 40.5\ngini = 0.457\nsamples = 48\nvalue = [31, 17]"] ;
102 -> 110 ;
205 [label="gini = 0.0\nsamples = 1\nvalue = [0, 1]"] ;
110 -> 205 ;
206 [label="gini = 0.449\nsamples = 47\nvalue = [31, 16]"] ;
110 -> 206 ;
94 [label="gini = 0.0\nsamples = 2\nvalue = [0, 2]"] ;
23 -> 94 ;
24 [label="gini = 0.38\nsamples = 90\nvalue = [23, 67]"] ;
18 -> 24 ;
16 [label="X[2] <= 613.5\ngini = 0.106\nsamples = 2160\nvalue = [2039, 121]"] ;
8 -> 16 ;
19 [label="X[1] <= 142.5\ngini = 0.272\nsamples = 450\nvalue = [377, 73]"] ;
16 -> 19 ;
21 [label="X[0] <= 0.5\ngini = 0.437\nsamples = 90\nvalue = [29, 61]"] ;
19 -> 21 ;
173 [label="gini = 0.0\nsamples = 1\nvalue = [1, 0]"] ;
21 -> 173 ;
174 [label="X[0] <= 88.5\ngini = 0.431\nsamples = 89\nvalue = [28, 61]"] ;
21 -> 174 ;
175 [label="X[0] <= 3.5\ngini = 0.425\nsamples = 88\nvalue = [27, 61]"] ;
174 -> 175 ;
387 [label="gini = 0.0\nsamples = 3\nvalue = [0, 3]"] ;
175 -> 387 ;
388 [label="X[0] <= 4.5\ngini = 0.433\nsamples = 85\nvalue = [27, 58]"] ;
175 -> 388 ;
389 [label="gini = 0.0\nsamples = 1\nvalue = [1, 0]"] ;
388 -> 389 ;
390 [label="X[0] <= 8.5\ngini = 0.427\nsamples = 84\nvalue = [26, 58]"] ;
388 -> 390 ;
391 [label="gini = 0.0\nsamples = 4\nvalue = [0, 4]"] ;
390 -> 391 ;
392 [label="X[0] <= 9.5\ngini = 0.439\nsamples = 80\nvalue = [26, 54]"] ;
390 -> 392 ;
393 [label="gini = 0.0\nsamples = 1\nvalue = [1, 0]"] ;
392 -> 393 ;
394 [label="gini = 0.433\nsamples = 79\nvalue = [25, 54]"] ;
392 -> 394 ;
176 [label="gini = 0.0\nsamples = 1\nvalue = [1, 0]"] ;
174 -> 176 ;
22 [label="X[2] <= 612.5\ngini = 0.064\nsamples = 360\nvalue = [348, 12]"] ;
19 -> 22 ;
235 [label="gini = 0.0\nsamples = 180\nvalue = [180, 0]"] ;
22 -> 235 ;
236 [label="X[1] <= 183.0\ngini = 0.124\nsamples = 180\nvalue = [168, 12]"] ;
22 -> 236 ;
237 [label="gini = 0.0\nsamples = 90\nvalue = [90, 0]"] ;
236 -> 237 ;
238 [label="X[0] <= 88.5\ngini = 0.231\nsamples = 90\nvalue = [78, 12]"] ;
236 -> 238 ;
239 [label="X[0] <= 36.5\ngini = 0.217\nsamples = 89\nvalue = [78, 11]"] ;
238 -> 239 ;
241 [label="X[0] <= 25.5\ngini = 0.339\nsamples = 37\nvalue = [29, 8]"] ;
239 -> 241 ;
243 [label="gini = 0.204\nsamples = 26\nvalue = [23, 3]"] ;
241 -> 243 ;
244 [label="X[0] <= 26.5\ngini = 0.496\nsamples = 11\nvalue = [6, 5]"] ;
241 -> 244 ;
303 [label="gini = 0.0\nsamples = 1\nvalue = [0, 1]"] ;
244 -> 303 ;
304 [label="X[0] <= 28.5\ngini = 0.48\nsamples = 10\nvalue = [6, 4]"] ;
244 -> 304 ;
305 [label="gini = 0.0\nsamples = 2\nvalue = [2, 0]"] ;
304 -> 305 ;
306 [label="X[0] <= 30.5\ngini = 0.5\nsamples = 8\nvalue = [4, 4]"] ;
304 -> 306 ;
307 [label="gini = 0.0\nsamples = 2\nvalue = [0, 2]"] ;
306 -> 307 ;
308 [label="X[0] <= 33.5\ngini = 0.444\nsamples = 6\nvalue = [4, 2]"] ;
306 -> 308 ;
309 [label="gini = 0.0\nsamples = 3\nvalue = [3, 0]"] ;
308 -> 309 ;
310 [label="gini = 0.444\nsamples = 3\nvalue = [1, 2]"] ;
308 -> 310 ;
242 [label="gini = 0.109\nsamples = 52\nvalue = [49, 3]"] ;
239 -> 242 ;
240 [label="gini = 0.0\nsamples = 1\nvalue = [0, 1]"] ;
238 -> 240 ;
20 [label="X[1] <= 170.5\ngini = 0.055\nsamples = 1710\nvalue = [1662, 48]"] ;
16 -> 20 ;
25 [label="gini = 0.013\nsamples = 1260\nvalue = [1252, 8]"] ;
20 -> 25 ;
26 [label="X[1] <= 184.5\ngini = 0.162\nsamples = 450\nvalue = [410, 40]"] ;
20 -> 26 ;
27 [label="X[0] <= 0.5\ngini = 0.437\nsamples = 90\nvalue = [61, 29]"] ;
26 -> 27 ;
177 [label="gini = 0.0\nsamples = 1\nvalue = [0, 1]"] ;
27 -> 177 ;
178 [label="X[0] <= 5.5\ngini = 0.431\nsamples = 89\nvalue = [61, 28]"] ;
27 -> 178 ;
179 [label="gini = 0.0\nsamples = 5\nvalue = [5, 0]"] ;
178 -> 179 ;
180 [label="X[0] <= 8.5\ngini = 0.444\nsamples = 84\nvalue = [56, 28]"] ;
178 -> 180 ;
181 [label="gini = 0.0\nsamples = 3\nvalue = [0, 3]"] ;
180 -> 181 ;
182 [label="X[0] <= 84.5\ngini = 0.427\nsamples = 81\nvalue = [56, 25]"] ;
180 -> 182 ;
191 [label="X[0] <= 12.5\ngini = 0.411\nsamples = 76\nvalue = [54, 22]"] ;
182 -> 191 ;
269 [label="gini = 0.0\nsamples = 4\nvalue = [4, 0]"] ;
191 -> 269 ;
270 [label="X[0] <= 13.5\ngini = 0.424\nsamples = 72\nvalue = [50, 22]"] ;
191 -> 270 ;
271 [label="gini = 0.0\nsamples = 1\nvalue = [0, 1]"] ;
270 -> 271 ;
272 [label="gini = 0.417\nsamples = 71\nvalue = [50, 21]"] ;
270 -> 272 ;
192 [label="X[0] <= 87.5\ngini = 0.48\nsamples = 5\nvalue = [2, 3]"] ;
182 -> 192 ;
193 [label="gini = 0.0\nsamples = 3\nvalue = [0, 3]"] ;
192 -> 193 ;
194 [label="gini = 0.0\nsamples = 2\nvalue = [2, 0]"] ;
192 -> 194 ;
28 [label="X[2] <= 622.0\ngini = 0.059\nsamples = 360\nvalue = [349, 11]"] ;
26 -> 28 ;
71 [label="gini = 0.215\nsamples = 90\nvalue = [79, 11]"] ;
28 -> 71 ;
72 [label="gini = 0.0\nsamples = 270\nvalue = [270, 0]"] ;
28 -> 72 ;
6 [label="X[0] <= 86.5\ngini = 0.488\nsamples = 90\nvalue = [38, 52]"] ;
4 -> 6 ;
115 [label="X[0] <= 84.5\ngini = 0.492\nsamples = 87\nvalue = [38, 49]"] ;
6 -> 115 ;
117 [label="X[0] <= 80.5\ngini = 0.488\nsamples = 85\nvalue = [36, 49]"] ;
115 -> 117 ;
119 [label="X[0] <= 73.5\ngini = 0.494\nsamples = 81\nvalue = [36, 45]"] ;
117 -> 119 ;
121 [label="X[0] <= 68.5\ngini = 0.482\nsamples = 74\nvalue = [30, 44]"] ;
119 -> 121 ;
123 [label="X[0] <= 61.5\ngini = 0.491\nsamples = 69\nvalue = [30, 39]"] ;
121 -> 123 ;
125 [label="X[0] <= 56.5\ngini = 0.475\nsamples = 62\nvalue = [24, 38]"] ;
123 -> 125 ;
127 [label="X[0] <= 55.5\ngini = 0.488\nsamples = 57\nvalue = [24, 33]"] ;
125 -> 127 ;
273 [label="gini = 0.484\nsamples = 56\nvalue = [23, 33]"] ;
127 -> 273 ;
274 [label="gini = 0.0\nsamples = 1\nvalue = [1, 0]"] ;
127 -> 274 ;
128 [label="gini = 0.0\nsamples = 5\nvalue = [0, 5]"] ;
125 -> 128 ;
126 [label="gini = 0.245\nsamples = 7\nvalue = [6, 1]"] ;
123 -> 126 ;
124 [label="gini = 0.0\nsamples = 5\nvalue = [0, 5]"] ;
121 -> 124 ;
122 [label="gini = 0.245\nsamples = 7\nvalue = [6, 1]"] ;
119 -> 122 ;
120 [label="gini = 0.0\nsamples = 4\nvalue = [0, 4]"] ;
117 -> 120 ;
118 [label="gini = 0.0\nsamples = 2\nvalue = [2, 0]"] ;
115 -> 118 ;
116 [label="gini = 0.0\nsamples = 3\nvalue = [0, 3]"] ;
6 -> 116 ;
2 [label="gini = 0.014\nsamples = 8100\nvalue = [8044, 56]"] ;
0 -> 2 [labeldistance=2.5, labelangle=-45, headlabel="False"] ;
}